This is an ARPA-format language model file, generated by CMU Sphinx
\data\
ngram 1=400
ngram 2=1082
ngram 3=1307

\1-grams:
-3.2720 <UNK> 0.0000
-2.7883 's -1.0510
-2.4873 * -0.4656
-3.2720 + -1.0520
-2.7883 / -1.0529
-1.2699 </s> -99.0000
-99.0000 <s> -0.4130
-2.9644 = -1.0542
-2.0613 _ -0.6539
-2.4203 _a -0.4389
-1.9038 a -0.3017
-2.6634 able -1.5307
-3.2720 abnormal -1.0312
-2.5666 absolute -0.4120
-2.9644 actually -1.0533
-3.2720 addition -1.0457
-3.2720 after -1.0531
-3.2720 ago -1.0312
-2.7883 agree -0.2253
-2.9644 agreed -0.0659
-2.3112 all -0.9865
-3.2720 along -1.0355
-3.2720 already -1.0535
-2.1863 also -0.1342
-2.7883 am -1.0968
-2.9644 an -1.0547
-2.5666 ananlada -0.4124
-1.9645 and -0.6876
-3.2720 another -1.0520
-2.7883 any -1.0535
-2.2654 anytopo -0.4007
-2.7883 apparently -0.2194
-1.9868 are -0.3005
-2.9644 arrangement -1.0240
-2.2241 arthur -2.0701
-2.3112 as -0.2213
-3.2720 ask -1.0517
-3.2720 assigns -1.0498
-2.9644 assume -1.0333
-2.3623 at -0.3269
-2.9644 aug -0.0767
-2.5666 b -1.0284
-2.0613 be -0.4592
-2.9644 before -1.0469
-2.6634 believe -0.0755
-2.9644 better -0.0761
-2.4873 big -0.0734
-2.7883 bigbird -0.2052
-2.9644 both -0.0758
-2.7883 but -0.2093
-2.4873 by -0.2264
-2.4873 c -1.0467
-2.2654 calo -0.6359
-2.9644 calobig -0.0768
-2.5666 can -0.4100
-2.7883 cant -0.2291
-3.2720 carry -1.0545
-2.7883 case -0.2238
-2.9644 cases -0.0704
-2.9644 cause -1.0418
-3.2720 causing -1.0550
-2.1863 cent -0.3079
-2.9644 certain -0.0752
-3.2720 certainty -1.0502
-2.2654 chan -0.2782
-2.5666 change -0.6003
-3.2720 changed -1.0457
-2.2241 cheating -0.8142
-3.2720 checked -1.0438
-2.5666 chotimongkol -0.3895
-3.2720 close -1.0457
-3.2720 closer -1.0550
-2.7883 code -0.2177
-2.9644 complication -1.0526
-2.7883 component -1.0469
-2.4203 components -0.2400
-2.6634 computation -0.3024
-2.9644 conclude -0.0723
-3.2720 confirms -1.0517
-2.4873 cont -0.2724
-2.7883 correct -1.0443
-2.5666 could -0.1546
-3.2720 current -1.0542
-3.2720 currently -1.0547
-2.7883 daines -0.2060
-2.6634 data -0.3004
-2.9644 dave -1.0293
-2.7883 david -1.0970
-3.2720 dealing -1.0533
-3.2720 decide -1.0542
-3.2720 decision -1.0501
-1.9433 decode -2.0770
-2.9644 defunct -1.0479
-3.2720 description -1.0312
-2.9644 despite -0.0577
-2.9644 detail -0.0755
-2.4203 difference -0.2647
-2.9644 different -1.0278
-3.2720 differently -1.0438
-2.9644 directory -0.0760
-3.2720 discovered -1.0502
-3.2720 distributions -1.0438
-3.2720 do -1.0498
-3.2720 doing -1.0507
-3.2720 e -1.0545
-3.2720 each -1.0545
-3.2720 effect -1.0550
-2.6634 effectively -0.3295
-2.6634 eight -1.0719
-2.9644 eighty -1.0483
-2.9644 eleven -0.0746
-2.9644 equal -1.0254
-3.2720 evandro -1.0312
-2.7883 even -1.0968
-2.9644 everything -0.0768
-2.9644 exactly -1.0349
-3.2720 examination -1.0550
-2.2654 experiment -0.3804
-2.5666 experiments -0.1332
-2.9644 fact -0.0719
-2.9644 fewer -0.0758
-3.2720 fifteen -1.0523
-3.2720 fifty -1.0501
-2.9644 figure -0.0767
-3.2720 file -1.0547
-3.2720 fill -1.0438
-2.5666 first -0.1530
-2.1194 five -0.4100
-3.2720 floating -1.0531
-2.6634 floor -0.3090
-2.7883 floored -0.2055
-2.4873 flooring -0.4413
-3.2720 following -1.0355
-2.3623 for -0.5286
-3.2720 forty -1.0541
-2.4203 four -1.0414
-2.6634 further -0.0752
-2.1194 g -0.3993
-2.5666 gauden -0.4010
-2.1863 gaussian -0.4499
-2.5666 gaussians -0.1506
-3.2720 get -1.0501
-2.7883 give -1.0491
-2.9644 given -1.0542
-2.7883 go -0.2067
-3.2720 going -1.0535
-3.2720 got -1.0480
-3.2720 guess -1.0535
-2.9644 h -0.0722
-3.2720 had -1.0498
-2.9644 happen -0.0659
-2.7883 happens -0.2124
-3.2720 hard -1.0550
-2.3623 has -0.5390
-2.1194 have -0.1194
-3.2720 haven -1.0547
-3.2720 havent -1.0547
-2.7883 having -1.0408
-2.9644 he -1.0545
-3.2720 healthy -1.0523
-2.9644 help -0.0659
-2.7883 here -1.0907
-3.2720 hi -1.0531
-3.2720 him -1.0550
-2.9644 however -1.0382
-2.7883 huggins -1.0970
-2.1863 hundred -0.3525
-1.9038 i -0.5127
-3.2720 idea -1.0517
-2.4203 if -0.4998
-2.5666 implementation -0.1447
-1.5842 in -0.5354
-2.9644 inaccurate -0.0533
-2.7883 incidence -0.2060
-3.2720 indeed -1.0355
-3.2720 infinite -1.0545
-3.2720 instead -1.0491
-3.2720 investigating -1.0517
-1.7884 is -0.4668
-3.2720 isnt -1.0547
-2.3112 it -0.6195
-2.7883 its -1.0491
-3.2720 jump -1.0312
-2.5666 just -0.1583
-2.9644 k -0.0761
-2.7883 know -0.2260
-2.9644 latter -0.0768
-3.2720 less -1.0550
-3.2720 level -1.0312
-2.7883 likelihood -0.2198
-3.2720 lines -1.0491
-3.2720 logic -1.0511
-2.9644 look -0.0755
-3.2720 lot -1.0491
-1.9230 m -0.2790
-2.9644 mail -0.0738
-2.4203 make -0.2731
-2.7883 many -0.2253
-3.2720 mathematically -1.0545
-3.2720 maybe -1.0501
-2.6634 me -0.3098
-2.3112 mean -0.1824
-3.2720 means -1.0550
-2.5666 might -0.1578
-3.2720 models -1.0550
-3.2720 modem -1.0533
-2.3623 more -0.1825
-2.9644 most -0.0713
-2.5666 mosur -0.4110
-2.6634 much -0.0741
-2.9644 must -0.0735
-3.2720 my -1.0541
-2.9644 n -0.0760
-2.5666 need -0.5641
-2.5666 nine -1.0739
-2.9644 nineteen -0.0767
-2.6634 no -0.3310
-2.6634 non -1.5347
-2.9644 none -0.0767
-2.9644 normal -1.0435
-2.5666 not -0.4019
-3.2720 notice -1.0502
-3.2720 number -1.0491
-3.2720 numbers -1.0483
-2.9644 objection -0.0719
-2.7883 observation -0.2221
-2.9644 observations -1.0387
-2.9644 observed -0.0764
-1.8505 of -0.5026
-2.7883 office -1.0968
-3.2720 oh -1.0498
-2.4873 on -0.2291
-1.9230 one -0.3166
-2.6634 only -0.3063
-2.5666 or -0.4024
-2.5666 other -0.1606
-3.2720 others -1.0550
-2.7883 our -0.2275
-2.7883 out -0.2060
-2.7883 p -0.2246
-3.2720 parameter -1.0547
-2.9644 parameters -1.0520
-3.2720 particular -1.0550
-2.1863 per -1.1110
-2.7883 perform -1.0427
-3.2720 performance -1.0550
-2.9644 perhaps -0.0761
-2.7883 phone -1.0970
-2.9644 place -0.0533
-3.2720 plan -1.0457
-2.9644 plenty -0.0713
-2.3112 point -0.3335
-2.9644 points -0.0727
-2.9644 possibly -0.0659
-3.2720 potentially -1.0545
-3.2720 printed -1.0539
-2.9644 probably -0.0767
-3.2720 problem -1.0504
-3.2720 procedure -1.0312
-2.7883 process -1.0293
-3.2720 r -1.0539
-2.7883 ravi -0.2297
-2.5666 ravishankar -0.4124
-2.5666 re -0.3895
-2.3623 reason -0.3190
-2.9644 reasons -0.0678
-3.2720 recently -1.0547
-2.9644 record -0.0755
-3.2720 regards -1.0312
-2.5666 removal -1.3830
-2.7883 remove -0.2101
-2.9644 removed -1.0349
-2.9644 resent -0.0761
-3.2720 rest -1.0491
-2.5666 result -0.3710
-2.9644 results -1.0192
-3.2720 right -1.0312
-3.2720 round -1.0550
-3.2720 running -1.0539
-2.4873 s -1.0404
-2.9644 safeguard -0.0659
-2.6634 same -0.3311
-2.9644 sample -0.0728
-2.4203 say -0.2474
-2.9644 scary -0.0533
-2.7883 scylla -1.0284
-2.9644 second -0.0702
-3.2720 see -1.0535
-2.4873 seems -0.6105
-3.2720 senone -1.0533
-3.2720 senones -1.0539
-2.6634 sense -0.0642
-3.2720 set -1.0438
-2.4203 seven -0.5041
-2.3112 seventy -0.2207
-2.3623 should -0.1803
-3.2720 shows -1.0502
-2.9644 similar -0.0761
-3.2720 since -1.0483
-3.2720 single -1.0545
-2.7883 situation -0.2276
-2.5666 six -0.4134
-2.9644 sixteen -1.0520
-2.9644 slow -1.0309
-3.2720 small -1.0541
-3.2720 smaller -1.0550
-2.4203 so -1.0598
-2.3623 some -0.1850
-2.3112 something -0.6093
-3.2720 specific -1.0457
-2.9644 speculate -0.0764
-3.2720 spent -1.0533
-2.7883 sphinxtrain -0.2070
-3.2720 still -1.0547
-3.2720 strange -1.0550
-3.2720 subtly -1.0547
-2.6634 such -0.3244
-2.9644 system -1.0430
-2.9644 t -1.0510
-3.2720 talk -1.0533
-3.2720 task -1.0312
-2.5666 ten -0.4108
-3.2720 test -1.0550
-2.9644 testing -0.0533
-3.2720 than -1.0355
-1.9433 that -0.3778
-1.3516 the -0.5075
-3.2720 their -1.0550
-2.4873 them -0.0491
-2.9644 then -1.0511
-2.0350 there -0.4482
-2.7883 they -0.2233
-3.2720 thing -1.0545
-3.2720 things -1.0483
-2.7883 thirty -0.2289
-2.0893 this -0.4074
-2.5666 those -1.3892
-2.6634 though -0.3036
-2.1194 thousand -0.3733
-3.2720 three -1.0531
-2.9644 through -0.0577
-2.9644 time -1.0339
-1.6634 to -0.4415
-3.2720 tomorrow -1.0457
-2.7883 too -0.2296
-2.5666 trained -1.3845
-2.5666 training -0.1338
-2.9644 transfer -1.0254
-3.2720 transferring -1.0542
-2.5666 treatment -0.1460
-2.7883 twenty -1.0449
-2.1194 two -1.1392
-2.4873 u -0.2181
-3.2720 under -1.0541
-3.2720 understand -1.0531
-3.2720 up -1.0498
-3.2720 upgrade -1.0545
-2.6634 use -0.3042
-2.9644 used -1.0302
-2.7883 using -0.2229
-2.7883 valid -0.1951
-2.9644 value -1.0238
-1.9868 variance -0.4778
-3.2720 variances -1.0457
-2.3623 vector -0.2956
-2.5666 vectors -0.3667
-2.9644 very -1.0547
-3.2720 warning -1.0550
-3.2720 warnings -1.0312
-2.5666 was -0.4090
-2.9644 way -1.0212
-3.2720 ways -1.0491
-1.8030 we -0.3135
-3.2720 welcomed -1.0545
-2.7883 well -0.2070
-2.7883 wer -1.0305
-2.5666 were -0.4095
-2.4873 what -0.2023
-3.2720 where -1.0511
-2.9644 whereas -1.0533
-2.5666 whether -0.1550
-2.6634 which -0.3293
-2.7883 while -0.2099
-2.9644 whole -1.0502
-2.0893 why -0.3355
-1.8030 will -0.2007
-2.3623 with -0.3259
-2.9644 without -0.0761
-3.2720 won -1.0547
-3.2720 wont -1.0514
-3.2720 would -1.0542
-2.9644 wrote -0.0533
-3.2720 y -1.0547
-3.2720 years -1.0550
-3.2720 yes -1.0531
-2.7883 yet -0.2181
-2.5666 you -0.1568
-2.9644 your -0.0768
-1.9038 zero -0.3796
-3.2720 ~ -1.0547

\2-grams:
-0.5171 's an -0.4408
-0.5171 's going 0.3499
-0.5171 's why -0.6229
-1.2641 * * -0.5478
-0.8181 * all -0.6588
-0.8181 * sixteen -0.4408
-0.8181 * thirty -0.5478
-0.8181 * vectors -0.6178
-0.0400 + five -0.5976
-0.5171 / s -0.6337
-0.5171 / senones 0.3499
-0.5171 / twenty -0.5478
-0.0043 </s> <s> 0.1351
-2.0444 <s> all -0.6588
-1.4377 <s> also -0.0737
-2.0444 <s> any -0.5478
-2.4903 <s> apparently 0.0072
-1.4150 <s> arthur 1.8024
-1.5633 <s> as 0.0083
-2.0444 <s> at -0.5214
-2.4903 <s> both 0.0344
-2.4903 <s> calo 0.1462
-2.0444 <s> currently 0.3499
-2.0444 <s> dave -0.4408
-2.4903 <s> david 1.0548
-2.4903 <s> despite 0.0344
-2.0444 <s> evandro 0.3499
-2.0444 <s> file 0.3499
-2.0444 <s> first -0.6178
-2.0444 <s> for -0.6526
-2.4903 <s> h 0.0344
-2.0444 <s> hi 0.3499
-2.4903 <s> however 0.3499
-1.0501 <s> i -0.0117
-2.4903 <s> if -0.6206
-2.0444 <s> in -0.6969
-2.0444 <s> is -0.7004
-1.5633 <s> it 0.0317
-2.0444 <s> of -0.6898
-2.4903 <s> on -0.0185
-2.0444 <s> one -0.6991
-1.5633 <s> phone 0.8841
-2.4903 <s> possibly 0.0344
-2.0444 <s> ravishankar -0.2917
-1.4401 <s> re -0.2853
-2.0444 <s> regards 0.3499
-2.4903 <s> resent 0.0344
-2.0444 <s> s -0.6337
-2.4903 <s> second 0.0344
-1.4150 <s> so 0.0287
-1.5633 <s> that -0.6447
-1.1011 <s> the -0.5489
-1.5633 <s> there -0.0506
-2.4903 <s> this 0.0873
-2.0444 <s> using -0.6551
-1.5633 <s> we -0.1161
-2.0444 <s> well -0.5478
-2.0444 <s> what -0.6337
-2.0444 <s> whereas -0.4408
-0.3411 = fifteen 0.3499
-0.3411 = twenty -0.5478
-0.2303 _ anytopo -0.2065
-0.7127 _ m -0.7780
-0.8850 _a </s> 1.2947
-0.2787 _a u 0.0570
-1.4017 a better -0.6279
-1.8478 a big -0.0185
-1.8478 a certain 0.0344
-1.4017 a closer 0.3499
-1.4017 a description 0.3499
-1.8478 a gaussian -0.0308
-1.8478 a given 0.3499
-1.4017 a hard 0.3499
-1.4017 a lot 0.3499
-1.4017 a particular 0.3499
-1.8478 a result -0.5081
-1.4017 a single 0.3499
-1.4017 a small 0.3499
-1.4017 a system -0.4408
-1.4017 a two -0.6759
-1.4017 a warning 0.3499
-1.8478 a zero -0.5725
-0.0127 able to -0.2343
-0.0400 abnormal </s> 1.2947
-0.2116 absolute difference -0.5019
-0.3411 actually assigns 0.3499
-0.3411 actually say -0.6447
-0.0400 addition to -0.6953
-0.0400 after all -0.6588
-0.0400 ago </s> 1.2947
-0.5171 agree there -0.6812
-0.9631 agree with -0.0248
-0.7870 agreed in 0.2233
-0.9943 all * -0.6809
-0.9943 all </s> 1.2947
-0.9943 all are -0.6838
-0.9943 all i -0.6876
-0.9943 all observations -0.4408
-0.9943 all others 0.3499
-0.9943 all the -0.7035
-0.9943 all why -0.6962
-0.9943 all zero -0.6876
-0.0400 along the -0.7004
-0.0400 already make -0.6447
-1.5652 also as 0.1161
-1.5652 also believe -0.0059
-1.1191 also notice 0.3499
-1.1191 also since 0.3499
-1.5652 also something -0.0268
-1.5652 also valid 0.0072
-1.5652 also we -0.6770
-0.0361 am able 1.3265
-0.3411 an infinite 0.3499
-0.3411 an r 0.3499
-0.2116 ananlada chotimongkol -0.3644
-0.3222 and decode -0.7173
-1.3622 and i -0.6876
-1.3622 and make -0.6447
-1.3622 and one -0.6991
-1.3622 and potentially 0.3499
-1.3622 and results -0.4408
-1.3622 and such -0.5928
-1.8081 and there -0.6560
-1.8081 and we -0.0380
-1.3622 and zero -0.6991
-0.0400 another five -0.5976
-0.5171 any certainty 0.3499
-0.5171 any idea 0.3499
-0.5171 any other -0.6178
-1.0814 anytopo can -0.6178
-0.4748 anytopo has -0.5492
-1.0814 anytopo were -0.6178
-1.0814 anytopo will -0.7004
-1.5273 anytopo yet 0.0072
-0.9631 apparently in -0.0398
-0.5171 apparently transferring 0.3499
-1.7648 are also -0.0308
-1.3188 are correct -0.5478
-1.3188 are dealing 0.3499
-1.3188 are five -0.5976
-1.7648 are inaccurate 0.0344
-1.7648 are non 1.4972
-1.3188 are only -0.5928
-1.7648 are plenty 0.0344
-1.3188 are subtly 0.3499
-1.3188 are then -0.4408
-1.3188 are too -0.5478
-1.7648 are trained 0.6087
-1.3188 are two -0.6759
-1.3188 are welcomed 0.3499
-0.3411 arrangement </s> 1.2947
-0.3411 arrangement will -0.7004
-1.0814 arthur </s> 1.2947
-0.0413 arthur chan -0.1361
-1.4403 as a -0.0367
-1.4403 as variance -0.0353
-1.4403 as well 0.0072
-0.5132 as you -0.0504
-0.0400 ask why -0.6796
-0.0400 assigns zero -0.6991
-0.3411 assume all -0.6588
-0.3411 assume the -0.7004
-1.3891 at a -0.0367
-0.9430 at here 0.3926
-1.3891 at six -0.0136
-0.4621 at this -0.1367
-0.7870 aug thirty 0.0072
-0.7389 b / -0.5478
-0.7389 b </s> 1.2947
-0.7389 b before -0.4408
-0.7389 b p -0.5478
-0.7389 b while -0.5478
-1.2703 be a -0.6876
-1.2703 be floored -0.5478
-1.2703 be non 0.8349
-1.2703 be removed -0.4408
-0.6662 be something -0.4536
-1.7164 be that -0.0361
-1.7164 be the -0.0221
-1.2703 be valid -0.5478
-0.7895 be zero -0.1115
-0.3411 before flooring -0.6337
-0.3411 before we -0.7004
-1.0880 believe ravi 0.0072
-1.0880 believe those 0.6087
-0.7870 better result -0.0136
-1.2641 big difference 0.2332
-1.2641 big training -0.0136
-1.2641 big was -0.0136
-0.9631 bigbird </s> 1.9571
-0.5171 bigbird has -0.6588
-0.7870 both make -0.0221
-0.5171 but it -0.6588
-0.9631 but the -0.0232
-1.2641 by much -0.0059
-1.2641 by only -0.0059
-0.8181 by something -0.6588
-0.8181 by sphinxtrain -0.5478
-0.8181 c / -0.5478
-0.8181 c and -0.6860
-0.8181 c e 0.3499
-0.8181 c if -0.6844
-0.8181 c most -0.6279
-0.8181 c process -0.5478
-0.4520 calo big 0.0072
-0.4748 calo cheating -0.0377
-1.0814 calo task 0.3499
-0.7870 calobig testing 0.0344
-1.1848 can help 0.0344
-0.7389 can perform -0.5478
-0.7389 can understand 0.3499
-0.7389 can upgrade 0.3499
-0.5171 cant actually -0.4408
-0.9631 cant say -0.0221
-0.0400 carry out -0.5478
-0.5171 case of -0.6898
-0.9631 case removal 0.6087
-0.7870 cases we -0.0380
-0.3411 cause is -0.6919
-0.3411 cause of -0.6393
-0.0400 causing another 0.3499
-1.1539 cent </s> 1.2947
-0.5474 cent absolute -0.3644
-1.6000 cent of 0.0059
-1.1539 cent performance 0.3499
-1.6000 cent wer -0.2985
-1.1539 cent whereas -0.4408
-0.7870 certain point -0.0268
-0.0400 certainty that -0.6860
-0.4748 chan ananlada -0.3644
-1.0814 chan david 0.3926
-1.5273 chan ravishankar 0.3707
-1.5273 chan wrote 0.0344
-0.8181 change and -0.6860
-0.2139 change the -0.6782
-0.0400 changed to -0.6953
-0.0872 cheating experiment -0.2821
-1.5273 cheating experiments -0.0136
-0.0400 checked in -0.6969
-0.2116 chotimongkol </s> 1.2218
-0.0400 close to -0.6608
-0.0400 closer examination 0.3499
-0.5171 code is -0.7004
-0.9631 code of -0.0373
-0.3411 complication at -0.6526
-0.3411 complication here 0.3926
-0.5171 component effectively -0.5928
-0.5171 component of -0.6393
-0.5171 component were -0.6178
-1.3311 components </s> 1.9571
-0.8850 components and -0.6860
-0.8850 components are -0.6838
-0.8850 components in -0.4389
-1.3311 components were -0.0136
-1.0880 computation </s> 1.9571
-0.6420 computation were -0.6178
-0.6420 computation will -0.6914
-0.7870 conclude that -0.0361
-0.0400 confirms this -0.5751
-0.3274 cont _ -0.7516
-0.5171 correct but -0.5478
-0.5171 correct having -0.5478
-0.5171 correct to -0.6953
-0.7389 could be -0.6812
-1.1848 could have -0.0326
-1.1848 could not -0.0136
-0.0400 current no -0.5928
-0.0400 currently your -0.6279
-0.5171 daines </s> 1.2947
-0.9631 daines ravishankar 0.3707
-0.6420 data </s> 1.2947
-1.0880 data points 0.0344
-0.6420 data to -0.7015
-0.3411 dave </s> 1.2947
-0.3411 dave has -0.6588
-0.0361 david huggins 0.8841
-0.0400 dealing with -0.6526
-0.0400 decide which -0.5928
-0.0400 decision one -0.6876
-0.3203 decode _ -0.6560
-0.3616 decode and -0.7192
-1.4017 decode the -0.7004
-1.4017 decode to -0.6953
-0.3411 defunct gaussian -0.6710
-0.3411 defunct variance -0.6838
-0.0400 description </s> 1.2947
-0.7870 despite the -0.0412
-0.7870 detail at -0.0248
-0.3274 difference in -0.3152
-0.3411 different </s> 1.2947
-0.3411 different g -0.5916
-0.0400 differently in -0.7023
-0.7870 directory on -0.6049
-0.0400 discovered that -0.6860
-0.0400 distributions in -0.4389
-0.0400 do a -0.6876
-0.0400 doing variance -0.6978
-0.0400 e our -0.5478
-0.0400 each component -0.5478
-0.0400 effect causing 0.3499
-0.6420 effectively make -0.6447
-1.0880 effectively mean -0.0268
-0.6420 effectively say -0.6447
-0.6420 eight one -0.6876
-0.1610 eight to -0.1825
-0.3411 eighty four -0.6447
-0.3411 eighty one -0.6876
-0.7870 eleven per 1.0710
-0.3411 equal the -0.6857
-0.3411 equal to -0.6608
-0.0400 evandro </s> 1.2947
-0.0361 even though -0.0131
-0.7870 everything without 0.0344
-0.3411 exactly equal -0.4408
-0.3411 exactly the -0.6844
-0.0400 examination shows 0.3499
-0.4748 experiment </s> 1.2218
-1.0814 experiment or -0.6178
-1.0814 experiment system -0.4408
-1.0814 experiment that -0.6860
-1.5273 experiment training -0.0136
-1.1848 experiments </s> 1.9571
-1.1848 experiments and -0.0361
-0.7389 experiments having -0.5478
-0.7870 fact i 0.0126
-0.7870 fewer components -0.0221
-0.0400 fifteen per 0.4087
-0.0400 fifty one -0.6876
-0.7870 figure out 0.0072
-0.0400 file transfer -0.4408
-0.0400 fill in -0.6969
-0.7389 first of -0.6898
-1.1848 first place 0.0344
-1.1848 first two 0.0983
-1.6621 five at -0.0248
-1.2161 five eight -0.5928
-0.5866 five hundred -0.1765
-0.6583 five thousand -0.7374
-1.2161 five two -0.6098
-0.0400 floating point -0.6588
-0.6420 floor </s> 1.2947
-1.0880 floor them -0.0185
-0.6420 floor value -0.4408
-0.9631 floored </s> 1.9571
-0.5171 floored if -0.6447
-0.8181 flooring </s> 1.2947
-0.8181 flooring are -0.6838
-1.2641 flooring everything 0.0344
-0.8181 flooring procedure 0.3499
-0.8181 flooring process -0.5478
-0.0400 following the -0.7004
-0.9430 for a -0.6991
-0.9430 for all -0.6588
-0.9430 for cont -0.4291
-1.3891 for further -0.0059
-0.9430 for observations -0.4408
-0.9430 for such -0.5928
-0.9430 for the -0.7004
-0.0400 forty nine -0.6178
-0.4041 four </s> 1.7863
-0.8850 four = -0.4408
-0.8850 four hundred -0.6941
-0.8850 four k -0.6279
-0.8850 four thousand -0.6779
-1.0880 further use -0.0059
-1.0880 further whether -0.0136
-0.6863 g _a -0.5205
-0.7631 g b -0.3611
-0.6376 g m -0.7110
-0.7389 gauden c -0.6337
-1.1848 gauden seems 0.3670
-0.7389 gauden though -0.5928
-0.7389 gauden will -0.6914
-1.1191 gaussian component -0.5478
-1.1191 gaussian components -0.6447
-1.5652 gaussian could -0.0136
-1.1191 gaussian distributions 0.3499
-1.1191 gaussian effectively -0.5928
-1.1191 gaussian is -0.6450
-1.1191 gaussian removal -0.6178
-1.1191 gaussian under 0.3499
-1.1191 gaussian was -0.6178
-1.5652 gaussian will -0.6465
-0.7389 gaussians to -0.6635
-1.1848 gaussians which -0.0059
-1.1848 gaussians with -0.0248
-0.0400 get one -0.6991
-0.5171 give a -0.6876
-0.5171 give better -0.6279
-0.5171 give him 0.3499
-0.3411 given observation -0.5478
-0.3411 given parameter 0.3499
-0.5171 go </s> 1.2947
-0.9631 go through 0.0344
-0.0400 going so -0.6447
-0.0400 got is -0.6919
-0.0400 guess if -0.4875
-0.7870 h m 0.0242
-0.0400 had a -0.6876
-0.7870 happen in -0.0398
-0.9631 happens in 0.2233
-0.5171 happens is -0.6919
-0.0400 hard decision 0.3499
-0.9943 has discovered 0.3499
-0.9943 has seventy -0.6891
-0.3878 has ten -0.3644
-0.9943 has three 0.3499
-1.6322 have agreed 0.0344
-1.6322 have fewer 0.0344
-1.6322 have none 0.0344
-1.6322 have some -0.0248
-1.1861 have spent 0.3499
-1.6322 have this -0.0332
-1.6322 have variance -0.0353
-1.1861 have zero -0.6381
-0.0400 haven t -0.4408
-0.0400 havent observed -0.6279
-0.5171 having a -0.6991
-0.5171 having five -0.5976
-0.5171 having zero -0.6876
-0.3411 he got 0.3499
-0.3411 he used -0.4408
-0.0400 healthy gaussian -0.6710
-0.7870 help in 0.2233
-0.0361 here is -0.1557
-0.0400 hi all -0.6588
-0.0400 him ~ 0.3499
-0.3411 however a -0.6876
-0.3411 however in -0.6969
-0.0361 huggins daines 0.0570
-1.6000 hundred eighty 0.3499
-0.6730 hundred four 0.0040
-0.5961 hundred seventy -0.6472
-1.1539 hundred twenty -0.5478
-0.9207 i agree 0.0570
-1.8478 i also -0.0308
-0.9207 i am 0.8841
-1.4017 i carry 0.3499
-1.8478 i could -0.0136
-1.4017 i guess 0.3499
-1.4017 i had 0.3499
-1.4017 i have -0.6759
-1.4017 i n -0.6279
-1.4017 i only -0.5928
-1.4017 i was -0.6178
-0.7953 i will -0.1353
-0.0400 idea why -0.6796
-0.8850 if he -0.4408
-0.8850 if its -0.5478
-1.3311 if the -0.6651
-0.4041 if there -0.1010
-0.7389 implementation actually -0.4408
-1.1848 implementation in 0.2233
-1.1848 implementation of -0.0373
-2.1672 in a -0.6694
-1.7213 in addition 0.3499
-1.7213 in all -0.6588
-1.7213 in an -0.4408
-2.1672 in calobig 0.0344
-2.1672 in decode 0.2049
-1.7213 in defunct -0.4408
-1.7213 in effect 0.3499
-1.7213 in gauden -0.6178
-2.1672 in more -0.0248
-1.7213 in most -0.6279
-2.1672 in other -0.0136
-2.1672 in our 0.0072
-1.0918 in some -0.0059
-0.3388 in the -0.2230
-2.1672 in this -0.5832
-1.7213 in yet -0.5478
-0.7870 inaccurate </s> 1.9571
-0.5171 incidence </s> 1.2947
-0.9631 incidence might -0.0136
-0.0400 indeed the -0.6613
-0.0400 infinite likelihood -0.6551
-0.0400 instead of -0.6898
-0.0400 investigating why -0.6796
-1.5171 is </s> 1.2947
-0.8878 is a -0.6431
-1.9632 is also -0.0308
-1.5171 is decode -0.4575
-1.5171 is each 0.3499
-1.5171 is even 0.3926
-1.5171 is exactly -0.4408
-1.5171 is gauden -0.6178
-1.5171 is indeed 0.3499
-1.5171 is more -0.6526
-1.0361 is no -0.0131
-1.9632 is not -0.5081
-1.5171 is one -0.6991
-1.5171 is smaller 0.3499
-1.5171 is something -0.6588
-1.9632 is the -0.6955
-1.9632 is whether -0.0136
-1.0361 is why -0.1560
-1.5171 is zero -0.6876
-0.0400 isnt slow -0.4408
-0.9943 it 's -0.5478
-0.9943 it in -0.7023
-1.4403 it is -0.6779
-0.9943 it just -0.6178
-0.3648 it seems 0.3308
-0.5171 its treatment -0.6178
-0.5171 its value -0.4408
-0.5171 its variance -0.6838
-0.0400 jump </s> 1.2947
-1.1848 just be 0.0626
-0.7389 just fill 0.3499
-1.1848 just happens 0.0072
-0.7870 k b -0.5081
-0.5171 know recently 0.3499
-0.9631 know that -0.0361
-0.7870 latter arrangement 0.3499
-0.0400 less number 0.3499
-0.0400 level </s> 1.2947
-0.9631 likelihood for -0.5928
-0.5171 likelihood to -0.6953
-0.0400 lines of -0.6393
-0.0400 logic there -0.6116
-0.7870 look at 0.1408
-0.0400 lot of -0.6565
-1.4017 m </s> 1.2947
-1.8478 m arthur 0.9985
-0.7724 m computation 0.0765
-0.8440 m g -0.7450
-1.8478 m i 0.0126
-0.8440 m m -0.4327
-0.7870 mail this -0.0332
-0.8850 make a -0.6876
-0.8850 make decode -0.6876
-0.8850 make me -0.5928
-1.3311 make more -0.0248
-1.3311 make sense -0.0059
-0.5171 many parameters -0.4408
-0.9631 many zero 0.0242
-0.0400 mathematically correct -0.5478
-0.0400 maybe one -0.6876
-0.6420 me jump 0.3499
-0.6420 me that -0.6860
-1.0880 me the -0.0412
-0.9943 mean </s> 1.2947
-0.9943 mean and -0.6860
-1.4403 mean are -0.0353
-1.4403 mean that -0.0361
-0.9943 mean vector -0.6526
-1.4403 mean we 0.0095
-0.0400 means fifty 0.3499
-1.1848 might have -0.0326
-1.1848 might just -0.0136
-0.7389 might know -0.5478
-0.0400 models warnings 0.3499
-0.0400 modem some -0.6526
-0.9430 more components -0.6447
-0.9430 more correct -0.5478
-1.3891 more data -0.0059
-1.3891 more detail 0.0344
-1.3891 more sense -0.0059
-0.7870 most of -0.6211
-0.2116 mosur arthur 0.2631
-1.0880 much more -0.0248
-1.0880 much what -0.0185
-0.7870 must be 0.0626
-0.0400 my experiments -0.6178
-0.7870 n c -0.5478
-0.1348 need to -0.0995
-0.7389 nine * -0.6337
-0.7389 nine components -0.6844
-0.2579 nine thousand -0.0912
-0.7870 nineteen p 0.0072
-0.6420 no gaussian -0.6710
-1.0880 no objection 0.0344
-0.6420 no observation -0.6551
-0.0127 non zero -0.1016
-0.7870 none while 0.0072
-0.3411 normal in -0.4389
-0.3411 normal logic 0.3499
-0.7389 not checked 0.3499
-0.7389 not something -0.6588
-1.1848 not speculate 0.0344
-0.7389 not will -0.7004
-0.0400 notice that -0.6860
-0.0400 number of -0.6898
-0.0400 numbers we -0.6914
-0.7870 objection i 0.0329
-0.9631 observation for -0.5928
-0.5171 observation is -0.6919
-0.3411 observations in -0.4389
-0.3411 observations that -0.6860
-0.7870 observed such -0.0059
-1.4550 of all -0.6588
-1.4550 of components -0.6447
-1.9009 of cont 0.2332
-1.4550 of doing 0.3499
-1.4550 of eleven -0.6279
-1.9009 of gauden -0.0136
-0.9740 of gaussian -0.6194
-1.4550 of more -0.6526
-1.4550 of my 0.3499
-1.9009 of sphinxtrain 0.0072
-0.8507 of the -0.6807
-0.8256 of them 0.0072
-1.4550 of what -0.6337
-1.4550 of zero -0.6381
-0.0361 office eight 0.2951
-0.0400 oh zero -0.6876
-1.2641 on aug 0.0344
-0.8181 on bigbird -0.5478
-0.8181 on investigating 0.3499
-1.2641 on scylla -0.2985
-1.4017 one + 0.3499
-1.4017 one </s> 1.2947
-1.4017 one components -0.6844
-1.4017 one experiment -0.6677
-1.4017 one forty 0.3499
-0.8440 one hundred -0.7181
-1.8478 one is -0.6869
-1.4017 one oh 0.3499
-1.4017 one per 0.4087
-1.8478 one point -0.6409
-1.8478 one sample 0.0344
-1.4017 one seventy -0.5074
-1.4017 one to -0.6953
-1.4017 one two -0.6098
-1.0880 only one -0.0367
-0.6420 only the -0.7035
-0.6420 only two -0.6759
-0.7389 or any -0.5478
-0.7389 or not -0.6178
-0.7389 or very -0.4408
-1.1848 or we 0.0160
-1.1848 other experiments -0.0136
-1.1848 other mail 0.0344
-0.7389 other situation -0.5478
-0.0400 others right 0.3499
-0.9631 our cheating 0.6975
-0.5171 our implementation -0.6178
-0.5171 out one -0.6876
-0.9631 out the 0.0011
-0.9631 p m -0.0367
-0.5171 p s -0.6337
-0.0400 parameter then -0.4408
-0.3411 parameters cont -0.4291
-0.3411 parameters for -0.6526
-0.0400 particular test 0.3499
-0.0347 per cent -0.1131
-0.5171 perform exactly -0.4408
-0.5171 perform in -0.4389
-0.5171 perform very -0.4408
-0.0400 performance level 0.3499
-0.7870 perhaps change 0.3670
-0.0361 phone office 0.8841
-0.7870 place </s> 1.9571
-0.0400 plan to -0.6953
-0.7870 plenty of 0.0273
-1.4403 point </s> 1.9571
-0.9943 point five -0.6779
-0.9943 point four -0.6447
-0.9943 point i -0.6294
-0.9943 point numbers 0.3499
-1.4403 point one -0.6694
-0.9943 point six -0.3565
-0.7870 points and -0.0361
-0.7870 possibly in -0.0061
-0.0400 potentially give -0.5478
-0.0400 printed by -0.6337
-0.7870 probably cant 0.0072
-0.0400 problem and -0.6860
-0.0400 procedure </s> 1.2947
-0.5171 process </s> 1.2947
-0.5171 process running 0.3499
-0.5171 process so -0.6447
-0.0400 r s -0.6337
-0.9631 ravi might -0.0136
-0.5171 ravi tomorrow 0.3499
-0.2116 ravishankar mosur -0.3644
-0.2116 re </s> 1.2218
-0.9430 reason cont -0.4291
-0.3853 reason why -0.3629
-0.7870 reasons to -0.0392
-0.0400 recently dave -0.4408
-0.7870 record for -0.0248
-0.0400 regards </s> 1.2947
-0.7389 removal process -0.5478
-0.1095 removal will -0.0329
-0.5171 remove the -0.7035
-0.9631 remove those 0.6087
-0.3411 removed before -0.4408
-0.3411 removed the -0.7004
-0.7870 resent re 0.3707
-0.0400 rest of -0.6393
-1.1848 result </s> 1.9571
-0.7389 result following 0.3499
-0.7389 result in -0.6969
-0.7389 result there -0.6116
-0.3411 results </s> 1.2947
-0.3411 results in -0.6969
-0.0400 right </s> 1.2947
-0.0400 round up 0.3499
-0.0400 running on -0.6809
-0.8181 s i -0.6876
-0.8181 s is -0.6634
-0.8181 s isnt 0.3499
-0.8181 s modem 0.3499
-0.8181 s s -0.6337
-0.8181 s y 0.3499
-0.7870 safeguard in 0.2233
-1.0880 same as -0.0268
-0.6420 same or -0.6178
-0.6420 same results -0.4408
-0.7870 sample are -0.0353
-1.3311 say </s> 1.9571
-0.8850 say i -0.6876
-1.3311 say too 0.0072
-0.8850 say we -0.6914
-0.8850 say with -0.6526
-0.7870 scary </s> 1.9571
-0.5171 scylla </s> 1.2947
-0.5171 scylla apparently -0.5478
-0.5171 scylla has -0.6588
-0.7870 second is -0.0010
-0.0400 see _a -0.6447
-0.8181 seems that -0.6860
-0.2139 seems to -0.1022
-0.0400 senone with -0.6526
-0.0400 senones c -0.6337
-1.0880 sense if 0.1748
-1.0880 sense in -0.0061
-0.0400 set in -0.4389
-0.8850 seven * -0.6337
-0.8850 seven / -0.5478
-0.8850 seven component -0.5478
-0.8850 seven gaussians -0.6178
-1.3311 seven of 0.0273
-0.8850 seven zero -0.6381
-0.4364 seventy seven 0.1217
-1.4403 seventy six 0.3059
-0.9430 should be -0.6812
-1.3891 should floor -0.0059
-1.3891 should record 0.0344
-1.3891 should remove 0.0072
-0.9430 should result -0.6178
-0.0400 shows that -0.6860
-0.7870 similar treatment -0.0136
-0.0400 since we -0.6914
-0.0400 single observation -0.6551
-0.9631 situation five 0.0648
-0.5171 situation where 0.3499
-0.2579 six g -0.1314
-1.1848 six nineteen 0.0344
-0.3411 sixteen = -0.4408
-0.3411 sixteen gaussian -0.6710
-0.3411 slow </s> 1.2947
-0.3411 slow after 0.3499
-0.0400 small change -0.6337
-0.0400 smaller than 0.3499
-0.8850 so * -0.6809
-0.8850 so its -0.5478
-0.8850 so slow -0.4408
-0.4041 so this 0.0800
-0.8850 so we -0.6528
-1.3891 some case 0.0072
-1.3891 some cases 0.0344
-1.3891 some reasons 0.0344
-0.9430 some time -0.4408
-0.9430 some years 0.3499
-0.9943 something </s> 1.2947
-0.9943 something normal -0.4408
-1.4403 something scary 0.0344
-0.9943 something specific 0.3499
-0.3648 something we 0.0662
-0.0400 specific to -0.6608
-0.7870 speculate further -0.0059
-0.0400 spent some -0.6526
-0.9631 sphinxtrain </s> 1.9571
-0.5171 sphinxtrain along 0.3499
-0.0400 still assume -0.4408
-0.0400 strange thing 0.3499
-0.0400 subtly different -0.4408
-1.0880 such a -0.0367
-0.6420 such and -0.6860
-0.6420 such models 0.3499
-0.3411 system is -0.7004
-0.3411 system that -0.6860
-0.3411 t be -0.6969
-0.3411 t observed -0.6279
-0.0400 talk with -0.6526
-0.0400 task </s> 1.2947
-0.2116 ten per 0.3357
-0.0400 test set 0.3499
-0.7870 testing </s> 1.9571
-0.0400 than the -0.6857
-1.3622 that 's -0.5478
-1.3622 that a -0.6991
-1.3622 that confirms 0.3499
-1.3622 that decode -0.4575
-1.3622 that equal -0.4408
-1.3622 that having -0.5478
-1.3622 that in -0.6969
-1.3622 that is -0.6919
-1.3622 that it -0.6891
-1.8081 that many 0.0072
-1.3622 that means 0.3499
-1.3622 that s -0.6337
-1.3622 that their 0.3499
-1.8081 that there -0.0344
-1.8081 that they 0.0072
-1.8081 that we 0.0095
-1.3622 that yes 0.3499
-1.0160 the calo 0.0401
-1.9590 the case -0.5478
-2.4050 the cause 0.3499
-1.3297 the cheating 0.7748
-2.4050 the code 0.0072
-2.4050 the complication 0.3499
-1.9590 the cont -0.4291
-1.9590 the current 0.3499
-2.4050 the fact 0.0344
-2.4050 the first -0.0136
-1.9590 the floor -0.5928
-1.9590 the flooring -0.6337
-1.3548 the g -0.5852
-2.4050 the gaussian -0.6337
-1.3297 the implementation 0.0179
-2.4050 the latter 0.0344
-1.9590 the lines 0.3499
-1.3548 the mean -0.1375
-1.9590 the non 0.8349
-1.9590 the normal -0.4408
-1.9590 the one -0.6876
-2.4050 the other -0.0136
-1.9590 the plan 0.3499
-1.9590 the problem 0.3499
-1.0160 the reason -1.2844
-1.9590 the rest 0.3499
-1.3297 the same 0.0765
-1.9590 the strange 0.3499
-1.9590 the time -0.4408
-1.9590 the training -0.6178
-2.4050 the treatment -0.0136
-1.9590 the two -0.6759
-1.9590 the use -0.5928
-1.3548 the variance -0.1883
-1.9590 the vector -0.6526
-1.9590 the wer -0.5478
-2.4050 the whole 0.3499
-1.9590 the your -0.6279
-0.0400 their ways 0.3499
-1.2641 them </s> 1.9571
-1.2641 them even 1.0548
-1.2641 them have -0.0326
-0.3411 then its -0.5478
-0.3411 then two -0.6759
-1.2703 there 's -0.5478
-0.7127 there are -0.2692
-0.6411 there is -0.1856
-1.7164 there must 0.0344
-1.2703 there should -0.6526
-1.2703 there won 0.3499
-1.2703 there wont 0.3499
-0.9631 they are -0.0353
-0.5171 they have -0.6759
-0.0400 thing here 0.3926
-0.0400 things we -0.6618
-0.9631 thirty first -0.0136
-0.5171 thirty nine -0.6178
-1.6621 this in -0.0398
-0.7350 this incidence 0.0570
-0.5866 this is -0.1771
-1.6621 this just -0.0136
-1.2161 this point -0.6588
-1.6621 this situation 0.0072
-1.2161 this way -0.4408
-0.1095 those gaussians 0.0179
-0.7389 those healthy 0.3499
-0.6420 though the -0.6857
-0.6420 though there -0.5925
-1.0880 though we -0.0380
-0.6095 thousand five -0.3768
-1.2161 thousand four -0.6447
-0.6583 thousand one -0.7780
-1.2161 thousand senone 0.3499
-0.0400 three point -0.6588
-0.7870 through the -0.6806
-0.3411 time on -0.6337
-0.3411 time the -0.7004
-1.6421 to all -0.6588
-1.6421 to ask 0.3499
-1.0379 to be -0.0002
-2.0881 to bigbird 0.0072
-2.0881 to change 0.3670
-1.6421 to decide 0.3499
-1.6421 to defunct -0.4408
-1.6421 to do 0.3499
-2.0881 to figure 0.0344
-1.6421 to get 0.3499
-1.6421 to go -0.5478
-2.0881 to look 0.0344
-2.0881 to make -0.0221
-1.1610 to me -0.0131
-1.1610 to nine 0.1351
-1.6421 to perform -0.5478
-1.6421 to round 0.3499
-2.0881 to safeguard 0.0344
-1.0126 to the -0.6353
-1.6421 to those -0.6178
-1.6421 to transfer -0.4408
-1.6421 to two -0.6098
-1.6421 to used -0.4408
-0.0400 tomorrow to -0.6953
-0.5171 too many -0.5478
-0.9631 too much -0.0059
-0.7389 trained and -0.6860
-0.1095 trained by 0.0072
-1.1848 training </s> 1.9571
-0.7389 training data -0.5928
-1.1848 training there 0.0505
-0.3411 transfer the -0.7035
-0.3411 transfer to -0.7015
-0.0400 transferring data -0.5928
-1.1848 treatment can -0.0136
-1.1848 treatment of -0.0373
-0.7389 treatment to -0.6953
-0.5171 twenty four -0.6447
-0.5171 twenty one -0.6876
-0.5171 twenty two -0.5641
-1.1861 two different -0.4408
-1.1861 two five -0.6779
-1.1861 two hundred -0.6735
-0.7051 two per 0.9003
-1.1861 two perform -0.5478
-1.1861 two point -0.6588
-1.1861 two things 0.3499
-0.5567 two thousand -0.1353
-1.1861 two two -0.6759
-1.2641 u c -0.5478
-1.2641 u to -0.0011
-0.8181 u was -0.6178
-0.8181 u which -0.5928
-0.0400 under trained -0.6178
-0.0400 understand it -0.6588
-0.0400 up zero -0.6876
-0.0400 upgrade scylla -0.5478
-1.0880 use </s> 1.9571
-0.6420 use less 0.3499
-0.6420 use of -0.6898
-0.3411 used decode -0.6876
-0.3411 used the -0.7035
-0.5171 using decode -0.4227
-0.9631 using two -0.5230
-0.9631 valid </s> 1.9571
-0.5171 valid in -0.6969
-0.3411 value </s> 1.2947
-0.3411 value is -0.6919
-1.3188 variance by -0.6337
-1.3188 variance floor -0.5928
-1.7648 variance flooring -0.5478
-1.3188 variance it -0.4599
-1.7648 variance or -0.0136
-1.3188 variance parameters -0.4408
-1.3188 variance should -0.6526
-1.7648 variance to -0.0011
-0.8378 variance vector -0.1011
-0.6894 variance vectors -0.0142
-1.3188 variance will -0.6618
-0.0400 variances to -0.6608
-1.3891 vector as -0.0268
-0.9430 vector could -0.6178
-1.3891 vector is -0.6296
-0.9430 vector or -0.6178
-0.9430 vector the -0.7035
-0.9430 vector will -0.6618
-1.1848 vectors </s> 1.9571
-0.7389 vectors in -0.7023
-0.7389 vectors whether -0.6178
-0.7389 vectors will -0.7004
-0.3411 very close 0.3499
-0.3411 very differently 0.3499
-0.0400 warning printed 0.3499
-0.0400 warnings </s> 1.2947
-0.7389 was able 0.8349
-0.7389 was abnormal 0.3499
-0.7389 was changed 0.3499
-1.1848 was trained 0.6087
-0.3411 way </s> 1.2947
-0.3411 way to -0.6953
-0.0400 ways of -0.6898
-1.5024 we are -0.6838
-1.9483 we can -0.5081
-1.5024 we cant -0.5478
-1.9483 we have -0.0326
-1.5024 we haven 0.3499
-1.5024 we havent 0.3499
-1.9483 we know 0.0072
-1.0213 we need 0.3599
-1.9483 we probably 0.0344
-0.8959 we should 0.0138
-0.9446 we will -0.0651
-1.5024 we would 0.3499
-0.0400 welcomed code -0.5478
-0.9631 well </s> 1.9571
-0.5171 well maybe 0.3499
-0.5171 wer </s> 1.2947
-0.5171 wer he -0.4408
-0.5171 wer instead 0.3499
-1.1848 were floored 0.0072
-0.7389 were mathematically 0.3499
-0.7389 were removed -0.4408
-0.7389 were using -0.6551
-0.8181 what happens -0.5478
-0.8181 what the -0.7035
-1.2641 what will -0.0380
-1.2641 what you -0.0136
-0.0400 where there -0.6116
-0.3411 whereas gauden -0.6178
-0.3411 whereas using -0.5478
-1.1848 whether similar 0.0344
-0.7389 whether they -0.5478
-1.1848 whether we 0.0160
-1.0880 which are -0.0353
-0.6420 which remove -0.5478
-0.6420 which way -0.4408
-0.9631 while flooring -0.0185
-0.5171 while the -0.7004
-0.3411 whole gaussian -0.6933
-0.3411 whole seventy -0.6891
-1.2441 why </s> 1.2947
-1.6901 why a -0.0367
-0.6376 why decode -0.5303
-0.7631 why i -0.1500
-1.2441 why in -0.7023
-1.2441 why it -0.6588
-1.6901 why the -0.6838
-1.5024 will already 0.3499
-1.5024 will assume -0.4408
-1.0213 will be -0.5686
-1.9483 will believe -0.0059
-1.9483 will conclude 0.0344
-1.9483 will effectively -0.0059
-1.9483 will give -0.2985
-1.9483 will go 0.0072
-1.9483 will happen 0.0344
-1.9483 will have -0.0326
-1.9483 will mean -0.0268
-1.9483 will need 0.5309
-1.9483 will perhaps 0.0344
-1.5024 will say -0.6447
-1.5024 will see 0.3499
-1.5024 will still 0.3499
-1.5024 will talk 0.3499
-0.9430 with any -0.5478
-0.9430 with floating 0.3499
-0.9430 with ravi -0.5478
-0.9430 with sixteen -0.4408
-1.3891 with what -0.0185
-1.3891 with zero 0.0126
-0.7870 without removal 0.6087
-0.0400 won t -0.4408
-0.0400 wont be -0.6969
-0.0400 would use -0.5928
-0.7870 wrote </s> 1.9571
-0.0400 y n -0.6279
-0.0400 years ago 0.3499
-0.0400 yes it -0.6891
-0.9631 yet in -0.0398
-0.5171 yet so -0.6447
-1.1848 you have -0.0326
-0.7389 you might -0.6178
-1.1848 you say -0.0221
-0.7870 your directory 0.0344
-0.9207 zero </s> 1.7863
-1.8478 zero but 0.0072
-1.4017 zero in -0.4389
-1.4017 zero k -0.6279
-1.8478 zero likelihood -0.4739
-1.4017 zero point -0.6891
-1.4017 zero that -0.6860
-1.4017 zero the -0.6857
-0.8440 zero variance -0.8168
-1.4017 zero variances 0.3499
-0.9207 zero vector -0.1011
-0.0400 ~ eleven -0.6279

\3-grams:
-0.0951 's an r 
-0.0951 's going so 
-0.0951 's why i 
-0.3963 * * all 
-0.3963 * * vectors 
-0.0951 * all * 
-0.0951 * sixteen = 
-0.0951 * thirty nine 
-0.0951 * vectors whether 
-0.0951 + five thousand 
-0.0951 / s isnt 
-0.0951 / senones c 
-0.0951 / twenty one 
-2.0910 </s> <s> all 
-1.2175 </s> <s> also 
-2.0910 </s> <s> any 
-2.7212 </s> <s> apparently 
-1.3935 </s> <s> arthur 
-1.9290 </s> <s> as 
-2.0910 </s> <s> at 
-2.7212 </s> <s> both 
-2.7212 </s> <s> calo 
-2.0910 </s> <s> currently 
-2.0910 </s> <s> dave 
-2.7212 </s> <s> david 
-2.7212 </s> <s> despite 
-2.0910 </s> <s> evandro 
-2.0910 </s> <s> file 
-2.0910 </s> <s> first 
-2.0910 </s> <s> for 
-2.7212 </s> <s> h 
-2.0910 </s> <s> hi 
-2.7212 </s> <s> however 
-1.0414 </s> <s> i 
-2.7212 </s> <s> if 
-2.0910 </s> <s> in 
-2.0910 </s> <s> is 
-1.9290 </s> <s> it 
-2.0910 </s> <s> of 
-2.7212 </s> <s> on 
-2.0910 </s> <s> one 
-1.9290 </s> <s> phone 
-2.7212 </s> <s> possibly 
-2.0910 </s> <s> ravishankar 
-1.3935 </s> <s> re 
-2.0910 </s> <s> regards 
-2.7212 </s> <s> resent 
-2.0910 </s> <s> s 
-2.7212 </s> <s> second 
-1.3935 </s> <s> so 
-1.9290 </s> <s> that 
-1.1504 </s> <s> the 
-1.9290 </s> <s> there 
-2.7212 </s> <s> this 
-2.0910 </s> <s> using 
-1.9290 </s> <s> we 
-2.0910 </s> <s> well 
-2.0910 </s> <s> what 
-2.0910 </s> <s> whereas 
-0.0951 <s> all are 
-1.5038 <s> also as 
-0.8735 <s> also notice 
-0.8735 <s> also since 
-1.5038 <s> also we 
-0.0951 <s> any idea 
-1.0267 <s> apparently in 
-0.6973 <s> arthur </s> 
-0.5353 <s> arthur chan 
-1.2028 <s> as a 
-0.5725 <s> as you 
-0.0951 <s> at this 
-1.0267 <s> both make 
-1.0267 <s> calo big 
-0.0951 <s> currently your 
-0.0951 <s> dave </s> 
-1.0267 <s> david huggins 
-1.0267 <s> despite the 
-0.0951 <s> evandro </s> 
-0.0951 <s> file transfer 
-0.0951 <s> first of 
-0.0951 <s> for cont 
-1.0267 <s> h m 
-0.0951 <s> hi all 
-0.3963 <s> however a 
-0.3963 <s> however in 
-1.0496 <s> i agree 
-1.6799 <s> i also 
-1.0496 <s> i am 
-1.0496 <s> i carry 
-1.0496 <s> i guess 
-0.8876 <s> i will 
-0.3963 <s> if he 
-0.3963 <s> if the 
-0.0951 <s> in most 
-0.0951 <s> is the 
-0.4105 <s> it seems 
-0.0951 <s> of what 
-1.0267 <s> on aug 
-0.0951 <s> one is 
-0.4105 <s> phone office 
-1.0267 <s> possibly in 
-0.0951 <s> ravishankar mosur 
-0.0969 <s> re </s> 
-0.0951 <s> regards </s> 
-1.0267 <s> resent re 
-0.0951 <s> s s 
-1.0267 <s> second is 
-0.6973 <s> so its 
-0.5353 <s> so this 
-0.5725 <s> that 's 
-0.5725 <s> that is 
-0.5725 <s> that s 
-1.6288 <s> the complication 
-0.2040 <s> the reason 
-0.9984 <s> the strange 
-0.5725 <s> there 's 
-1.2028 <s> there are 
-1.0267 <s> this is 
-0.0951 <s> using two 
-0.5725 <s> we can 
-1.2028 <s> we will 
-0.0951 <s> well maybe 
-0.0951 <s> what happens 
-0.0951 <s> whereas gauden 
-0.0951 = fifteen per 
-0.0951 = twenty two 
-1.0952 _ anytopo can 
-0.3010 _ anytopo has 
-1.0952 _ anytopo were 
-1.0952 _ anytopo will 
-1.7257 _ anytopo yet 
-0.0668 _ m g 
-0.0951 _a </s> <s> 
-1.5038 _a u c 
-1.5038 _a u to 
-0.8735 _a u was 
-0.8735 _a u which 
-0.0951 a better result 
-1.0267 a big difference 
-1.0267 a certain point 
-0.0951 a closer examination 
-0.0951 a description </s> 
-1.0267 a gaussian could 
-0.3963 a given observation 
-0.3963 a given parameter 
-0.0951 a hard decision 
-0.0951 a lot of 
-0.0951 a particular test 
-0.3963 a result following 
-0.3963 a result there 
-0.0951 a single observation 
-0.0951 a small change 
-0.0951 a system is 
-0.0951 a two point 
-0.0951 a warning printed 
-0.3963 a zero variance 
-0.3963 a zero vector 
-0.6973 able to do 
-1.3276 able to figure 
-0.6973 able to get 
-0.0951 abnormal </s> <s> 
-0.0791 absolute difference in 
-0.0951 actually assigns zero 
-0.0951 actually say with 
-0.0951 addition to those 
-0.0951 after all i 
-0.0951 ago </s> <s> 
-0.0951 agree there should 
-1.0267 agree with what 
-1.0267 agreed in the 
-0.0951 all * * 
-0.0951 all </s> <s> 
-0.0951 all are welcomed 
-0.0951 all i had 
-0.0951 all observations in 
-0.0951 all others right 
-0.0951 all the gaussian 
-0.0951 all why the 
-0.0951 all zero in 
-0.0951 along the lines 
-0.0951 already make me 
-1.0267 also as you 
-1.0267 also believe ravi 
-0.0951 also notice that 
-0.0951 also since we 
-1.0267 also something scary 
-1.0267 also valid </s> 
-0.3963 also we haven 
-0.3963 also we havent 
-0.4105 am able to 
-0.0951 an infinite likelihood 
-0.0951 an r s 
-0.0791 ananlada chotimongkol </s> 
-0.0458 and decode _ 
-0.0951 and i was 
-0.0951 and make decode 
-0.0951 and one is 
-0.0951 and potentially give 
-0.0951 and results in 
-0.0951 and such models 
-0.3963 and there won 
-0.3963 and there wont 
-1.0267 and we probably 
-0.0951 and zero likelihood 
-0.0951 another five thousand 
-0.0951 any certainty that 
-0.0951 any idea why 
-0.0951 any other situation 
-0.0951 anytopo can perform 
-0.0791 anytopo has ten 
-0.0951 anytopo were using 
-0.0951 anytopo will give 
-1.0267 anytopo yet in 
-1.0267 apparently in our 
-0.0951 apparently transferring data 
-1.0267 are also valid 
-0.0951 are correct but 
-0.0951 are dealing with 
-0.0951 are five thousand 
-1.0267 are inaccurate </s> 
-1.0267 are non zero 
-0.0951 are only two 
-1.0267 are plenty of 
-0.0951 are subtly different 
-0.0951 are then two 
-0.0951 are too many 
-1.0267 are trained by 
-0.0951 are two things 
-0.0951 are welcomed code 
-0.0951 arrangement </s> <s> 
-0.0951 arrangement will give 
-0.0951 arthur </s> <s> 
-0.3010 arthur chan ananlada 
-1.0952 arthur chan david 
-1.7257 arthur chan ravishankar 
-1.7257 arthur chan wrote 
-1.0267 as a result 
-1.0267 as variance or 
-1.0267 as well </s> 
-1.2028 as you have 
-0.5725 as you might 
-0.0951 ask why in 
-0.0951 assigns zero likelihood 
-0.0951 assume all the 
-0.0951 assume the use 
-1.0267 at a certain 
-0.0951 at here is 
-1.0267 at six nineteen 
-1.2028 at this in 
-0.5725 at this point 
-1.0267 aug thirty first 
-0.0951 b / s 
-0.0951 b </s> <s> 
-0.0951 b before we 
-0.0951 b p s 
-0.0951 b while the 
-0.0951 be a warning 
-0.0951 be floored if 
-0.0951 be non zero 
-0.0951 be removed the 
-0.0969 be something we 
-1.0267 be that many 
-1.0267 be the same 
-0.0951 be valid in 
-0.5725 be zero </s> 
-1.2028 be zero but 
-0.0951 before flooring </s> 
-0.0951 before we can 
-1.0267 believe ravi might 
-1.0267 believe those gaussians 
-1.0267 better result </s> 
-1.0267 big difference in 
-1.0267 big training </s> 
-1.0267 big was trained 
-1.0267 bigbird </s> <s> 
-0.0951 bigbird has three 
-1.0267 both make sense 
-0.0951 but it just 
-1.0267 but the mean 
-1.0267 by much more 
-1.0267 by only one 
-0.0951 by something </s> 
-0.0951 by sphinxtrain along 
-0.0951 c / senones 
-0.0951 c and one 
-0.0951 c e our 
-0.0951 c if the 
-0.0951 c most of 
-0.0951 c process running 
-1.3276 calo big training 
-1.3276 calo big was 
-0.0791 calo cheating experiment 
-0.0951 calo task </s> 
-1.0267 calobig testing </s> 
-1.0267 can help in 
-0.0951 can perform very 
-0.0951 can understand it 
-0.0951 can upgrade scylla 
-0.0951 cant actually say 
-1.0267 cant say too 
-0.0951 carry out one 
-0.0951 case of zero 
-1.0267 case removal will 
-1.0267 cases we have 
-0.0951 cause is </s> 
-0.0951 cause of the 
-0.0951 causing another five 
-0.0951 cent </s> <s> 
-0.0791 cent absolute difference 
-1.0267 cent of gaussian 
-0.0951 cent performance level 
-0.3963 cent wer </s> 
-0.3963 cent wer instead 
-0.0951 cent whereas using 
-1.0267 certain point </s> 
-0.0951 certainty that a 
-0.0791 chan ananlada chotimongkol 
-0.0951 chan david huggins 
-1.0267 chan ravishankar mosur 
-1.0267 chan wrote </s> 
-0.0951 change and make 
-0.0969 change the implementation 
-0.0951 changed to used 
-0.2552 cheating experiment </s> 
-1.0496 cheating experiment or 
-1.0496 cheating experiment system 
-1.6799 cheating experiment training 
-1.0267 cheating experiments and 
-0.0951 checked in yet 
-0.0791 chotimongkol </s> <s> 
-0.0951 close to the 
-0.0951 closer examination shows 
-0.0951 code is not 
-1.0267 code of sphinxtrain 
-0.0951 complication at here 
-0.0951 complication here is 
-0.0951 component effectively say 
-0.0951 component of the 
-0.0951 component were removed 
-1.0267 components </s> <s> 
-0.0951 components and potentially 
-0.0951 components are correct 
-0.0951 components in the 
-1.0267 components were floored 
-1.0267 computation </s> <s> 
-0.0951 computation were mathematically 
-0.0951 computation will assume 
-1.0267 conclude that there 
-0.0951 confirms this is 
-0.0668 cont _ m 
-0.0951 correct but it 
-0.0951 correct having a 
-0.0951 correct to round 
-0.0951 could be non 
-1.0267 could have variance 
-1.0267 could not speculate 
-0.0951 current no observation 
-0.0951 currently your directory 
-0.0951 daines </s> <s> 
-1.0267 daines ravishankar mosur 
-0.0951 data </s> <s> 
-1.0267 data points and 
-0.0951 data to bigbird 
-0.0951 dave </s> <s> 
-0.0951 dave has discovered 
-0.4105 david huggins daines 
-0.0951 dealing with floating 
-0.0951 decide which way 
-0.0951 decision one </s> 
-0.0413 decode _ anytopo 
-0.0458 decode and decode 
-0.0951 decode the wer 
-0.0951 decode to perform 
-0.0951 defunct gaussian is 
-0.0951 defunct variance parameters 
-0.0951 description </s> <s> 
-1.0267 despite the fact 
-1.0267 detail at a 
-1.5707 difference in decode 
-0.1461 difference in the 
-0.0951 different </s> <s> 
-0.0951 different g m 
-0.0951 differently in a 
-0.3963 directory on bigbird 
-0.3963 directory on scylla 
-0.0951 discovered that decode 
-0.0951 distributions in the 
-0.0951 do a small 
-0.0951 doing variance flooring 
-0.0951 e our implementation 
-0.0951 each component of 
-0.0951 effect causing another 
-0.0951 effectively make a 
-1.0267 effectively mean that 
-0.0951 effectively say we 
-0.0951 eight one components 
-0.4105 eight to nine 
-0.0951 eighty four = 
-0.0951 eighty one + 
-1.0267 eleven per cent 
-0.0951 equal the mean 
-0.0951 equal to the 
-0.0951 evandro </s> <s> 
-0.5725 even though the 
-1.2028 even though we 
-1.0267 everything without removal 
-0.0951 exactly equal to 
-0.0951 exactly the same 
-0.0951 examination shows that 
-0.0791 experiment </s> <s> 
-0.0951 experiment or any 
-0.0951 experiment system that 
-0.0951 experiment that confirms 
-1.0267 experiment training there 
-1.0267 experiments </s> <s> 
-1.0267 experiments and we 
-0.0951 experiments having zero 
-1.0267 fact i am 
-1.0267 fewer components </s> 
-0.0951 fifteen per cent 
-0.0951 fifty one seventy 
-1.0267 figure out the 
-0.0951 file transfer to 
-0.0951 fill in all 
-0.0951 first of all 
-1.0267 first place </s> 
-1.0267 first two thousand 
-1.0267 five at six 
-0.0951 five eight one 
-0.6973 five hundred eighty 
-0.5353 five hundred four 
-0.0668 five thousand one 
-0.0951 five two per 
-0.0951 floating point numbers 
-0.0951 floor </s> <s> 
-1.0267 floor them even 
-0.0951 floor value </s> 
-1.0267 floored </s> <s> 
-0.0951 floored if its 
-0.0951 flooring </s> <s> 
-0.0951 flooring are subtly 
-1.0267 flooring everything without 
-0.0951 flooring procedure </s> 
-0.0951 flooring process </s> 
-0.0951 following the normal 
-0.0951 for a given 
-0.0951 for all others 
-0.0951 for cont _ 
-1.0267 for further use 
-0.0951 for observations that 
-0.0951 for such and 
-0.0951 for the training 
-0.0951 forty nine * 
-0.4105 four </s> <s> 
-0.0951 four = twenty 
-0.0951 four hundred eighty 
-0.0951 four k b 
-0.0951 four thousand four 
-1.0267 further use </s> 
-1.0267 further whether similar 
-0.0668 g _a u 
-0.5725 g b </s> 
-0.5725 g b before 
-0.5725 g b while 
-0.0791 g m m 
-0.0951 gauden c / 
-1.0267 gauden seems to 
-0.0951 gauden though there 
-0.0951 gauden will still 
-0.0951 gaussian component effectively 
-0.0951 gaussian components are 
-1.0267 gaussian could have 
-0.0951 gaussian distributions in 
-0.0951 gaussian effectively make 
-0.0951 gaussian is a 
-0.0951 gaussian removal process 
-0.0951 gaussian under trained 
-0.0951 gaussian was abnormal 
-0.3963 gaussian will already 
-0.3963 gaussian will be 
-0.0951 gaussians to be 
-1.0267 gaussians which are 
-1.0267 gaussians with zero 
-0.0951 get one point 
-0.0951 give a better 
-0.0951 give better result 
-0.0951 give him ~ 
-0.0951 given observation is 
-0.0951 given parameter then 
-0.0951 go </s> <s> 
-1.0267 go through the 
-0.0951 going so slow 
-0.0951 got is one 
-0.0951 guess if there 
-1.0267 h m m 
-0.0951 had a two 
-1.0267 happen in other 
-1.0267 happens in the 
-0.0951 happens is decode 
-0.0951 hard decision one 
-0.0951 has discovered that 
-0.0951 has seventy six 
-0.0791 has ten per 
-0.0951 has three point 
-1.0267 have agreed in 
-1.0267 have fewer components 
-1.0267 have none while 
-1.0267 have some reasons 
-0.0951 have spent some 
-1.0267 have this situation 
-1.0267 have variance to 
-0.0951 have zero variance 
-0.0951 haven t observed 
-0.0951 havent observed such 
-0.0951 having a zero 
-0.0951 having five thousand 
-0.0951 having zero point 
-0.0951 he got is 
-0.0951 he used decode 
-0.0951 healthy gaussian distributions 
-1.0267 help in the 
-0.5725 here is even 
-1.2028 here is whether 
-0.0951 hi all </s> 
-0.0951 him ~ eleven 
-0.0951 however a closer 
-0.0951 however in gauden 
-0.5725 huggins daines </s> 
-1.2028 huggins daines ravishankar 
-0.3963 hundred eighty four 
-0.3963 hundred eighty one 
-0.4105 hundred four </s> 
-0.0668 hundred seventy seven 
-0.0951 hundred twenty four 
-0.5725 i agree there 
-1.2028 i agree with 
-1.0267 i also believe 
-0.4105 i am able 
-0.0951 i carry out 
-1.0267 i could not 
-0.0951 i guess if 
-0.0951 i had a 
-0.0951 i have spent 
-0.0951 i n c 
-0.0951 i only the 
-0.0951 i was able 
-1.5038 i will conclude 
-1.5038 i will perhaps 
-0.8735 i will say 
-0.8735 i will talk 
-0.0951 idea why it 
-0.0951 if he used 
-0.0951 if its value 
-0.3963 if the g 
-0.3963 if the variance 
-0.4105 if there is 
-0.0951 implementation actually assigns 
-1.0267 implementation in the 
-1.0267 implementation of cont 
-0.3963 in a particular 
-0.3963 in a system 
-0.0951 in addition to 
-0.0951 in all zero 
-0.0951 in an infinite 
-1.0267 in calobig testing 
-1.0267 in decode and 
-0.0951 in defunct variance 
-0.0951 in effect causing 
-0.0951 in gauden though 
-1.0267 in more detail 
-0.0951 in most of 
-1.0267 in other experiments 
-1.0267 in our cheating 
-1.3276 in some case 
-1.3276 in some cases 
-0.4393 in the calo 
-1.4377 in the case 
-1.2758 in the cheating 
-2.0681 in the code 
-2.0681 in the first 
-2.0681 in the g 
-1.4377 in the one 
-2.0681 in the other 
-1.4377 in the variance 
-0.3963 in this incidence 
-0.3963 in this way 
-0.0951 in yet so 
-1.0267 inaccurate </s> <s> 
-0.0951 incidence </s> <s> 
-1.0267 incidence might just 
-0.0951 indeed the reason 
-0.0951 infinite likelihood for 
-0.0951 instead of eleven 
-0.0951 investigating why </s> 
-0.0951 is </s> <s> 
-0.6973 is a description 
-0.6973 is a hard 
-0.6973 is a single 
-0.6973 is a zero 
-1.0267 is also something 
-0.0951 is decode and 
-0.0951 is each component 
-0.0951 is even though 
-0.0951 is exactly equal 
-0.0951 is gauden c 
-0.0951 is indeed the 
-0.0951 is more correct 
-0.5725 is no gaussian 
-1.2028 is no objection 
-0.3963 is not checked 
-0.3963 is not something 
-0.0951 is one point 
-0.0951 is smaller than 
-0.0951 is something specific 
-0.3963 is the cont 
-0.3963 is the plan 
-1.0267 is whether we 
-1.2028 is why a 
-0.5725 is why the 
-0.0951 is zero the 
-0.0951 isnt slow after 
-0.0951 it 's going 
-0.0951 it in this 
-0.3963 it is more 
-0.3963 it is something 
-0.0951 it just fill 
-0.6973 it seems that 
-0.5353 it seems to 
-0.0951 its treatment to 
-0.0951 its value is 
-0.0951 its variance will 
-0.0951 jump </s> <s> 
-1.0267 just be something 
-0.0951 just fill in 
-1.0267 just happens in 
-0.3963 k b / 
-0.3963 k b p 
-0.0951 know recently dave 
-1.0267 know that they 
-0.3963 latter arrangement </s> 
-0.3963 latter arrangement will 
-0.0951 less number of 
-0.0951 level </s> <s> 
-0.3963 likelihood for all 
-0.3963 likelihood for observations 
-0.0951 likelihood to all 
-0.0951 lines of the 
-0.0951 logic there are 
-1.0267 look at this 
-0.0951 lot of gaussian 
-0.0951 m </s> <s> 
-1.0267 m arthur chan 
-1.3276 m computation </s> 
-0.6973 m computation were 
-0.6973 m computation will 
-0.0668 m g _a 
-1.0267 m i agree 
-0.9404 m m </s> 
-0.2429 m m computation 
-1.5707 m m i 
-1.0267 mail this just 
-0.0951 make a lot 
-0.0951 make decode to 
-0.0951 make me jump 
-1.0267 make more sense 
-1.0267 make sense in 
-0.0951 many parameters for 
-1.0267 many zero variance 
-0.0951 mathematically correct having 
-0.0951 maybe one oh 
-0.0951 me jump </s> 
-0.0951 me that it 
-1.0267 me the treatment 
-0.0951 mean </s> <s> 
-0.0951 mean and zero 
-1.0267 mean are non 
-1.0267 mean that we 
-0.0951 mean vector could 
-1.0267 mean we will 
-0.0951 means fifty one 
-1.0267 might have some 
-1.0267 might just be 
-0.0951 might know recently 
-0.0951 models warnings </s> 
-0.0951 modem some years 
-0.0951 more components and 
-0.0951 more correct to 
-1.0267 more data points 
-1.0267 more detail at 
-1.0267 more sense if 
-0.3963 most of my 
-0.3963 most of the 
-0.0791 mosur arthur chan 
-1.0267 much more data 
-1.0267 much what will 
-1.0267 must be something 
-0.0951 my experiments having 
-0.3963 n c e 
-0.3963 n c process 
-0.7942 need to ask 
-1.4246 need to look 
-1.4246 need to safeguard 
-0.0951 nine * sixteen 
-0.0951 nine components were 
-0.4105 nine thousand five 
-1.0267 nineteen p m 
-0.0951 no gaussian removal 
-1.0267 no objection i 
-0.0951 no observation for 
-1.3276 non zero </s> 
-0.6973 non zero that 
-0.6973 non zero variance 
-1.0267 none while flooring 
-0.0951 normal in the 
-0.0951 normal logic there 
-0.0951 not checked in 
-0.0951 not something normal 
-1.0267 not speculate further 
-0.0951 not will go 
-0.0951 notice that having 
-0.0951 number of components 
-0.0951 numbers we cant 
-1.0267 objection i will 
-0.3963 observation for a 
-0.3963 observation for such 
-0.0951 observation is exactly 
-0.0951 observations in the 
-0.0951 observations that equal 
-1.0267 observed such a 
-0.0951 of all why 
-0.0951 of components in 
-1.0267 of cont _ 
-0.0951 of doing variance 
-0.0951 of eleven per 
-1.0267 of gauden seems 
-0.5725 of gaussian under 
-0.5725 of gaussian was 
-0.5725 of gaussian will 
-0.0951 of more components 
-0.0951 of my experiments 
-1.0267 of sphinxtrain </s> 
-0.7942 of the current 
-0.7942 of the non 
-0.7942 of the problem 
-0.7942 of the time 
-0.7942 of the vector 
-1.3276 of them </s> 
-1.3276 of them have 
-0.0951 of what the 
-0.0951 of zero variance 
-0.4105 office eight to 
-0.0951 oh zero k 
-1.0267 on aug thirty 
-0.0951 on bigbird has 
-0.0951 on investigating why 
-0.3963 on scylla apparently 
-0.3963 on scylla has 
-0.0951 one + five 
-0.0951 one </s> <s> 
-0.0951 one components were 
-0.0951 one experiment that 
-0.0951 one forty nine 
-0.0668 one hundred seventy 
-0.3963 one is gauden 
-0.3963 one is the 
-0.0951 one oh zero 
-0.0951 one per cent 
-0.3963 one point five 
-0.3963 one point one 
-1.0267 one sample are 
-0.0951 one seventy seven 
-0.0951 one to two 
-0.0951 one two per 
-1.0267 only one sample 
-0.0951 only the cause 
-0.0951 only two two 
-0.0951 or any other 
-0.0951 or not will 
-0.0951 or very close 
-1.0267 or we should 
-1.0267 other experiments </s> 
-1.0267 other mail this 
-0.0951 other situation where 
-0.0951 others right </s> 
-1.0267 our cheating experiment 
-0.0951 our implementation actually 
-0.0951 out one experiment 
-1.0267 out the reason 
-1.0267 p m arthur 
-0.0951 p s modem 
-0.0951 parameter then its 
-0.0951 parameters cont _ 
-0.0951 parameters for the 
-0.0951 particular test set 
-1.1744 per cent </s> 
-0.3802 per cent absolute 
-1.8049 per cent of 
-1.1744 per cent performance 
-1.8049 per cent wer 
-1.1744 per cent whereas 
-0.0951 perform exactly the 
-0.0951 perform in the 
-0.0951 perform very differently 
-0.0951 performance level </s> 
-1.0267 perhaps change the 
-0.4105 phone office eight 
-1.0267 place </s> <s> 
-0.0951 plan to transfer 
-1.0267 plenty of them 
-1.0267 point </s> <s> 
-0.0951 point five two 
-0.0951 point four k 
-0.0951 point i will 
-0.0951 point numbers we 
-0.3963 point one per 
-0.3963 point one two 
-0.0951 point six g 
-1.0267 points and there 
-1.0267 possibly in some 
-0.0951 potentially give better 
-0.0951 printed by sphinxtrain 
-1.0267 probably cant say 
-0.0951 problem and i 
-0.0951 procedure </s> <s> 
-0.0951 process </s> <s> 
-0.0951 process running on 
-0.0951 process so * 
-0.0951 r s y 
-1.0267 ravi might have 
-0.0951 ravi tomorrow to 
-0.0791 ravishankar mosur arthur 
-0.0791 re </s> <s> 
-0.0951 reason cont _ 
-0.1461 reason why decode 
-1.5707 reason why i 
-1.0267 reasons to change 
-0.0951 recently dave has 
-1.0267 record for further 
-0.0951 regards </s> <s> 
-0.0951 removal process so 
-1.3276 removal will effectively 
-1.3276 removal will mean 
-0.0951 remove the gaussian 
-1.0267 remove those gaussians 
-0.0951 removed before flooring 
-0.0951 removed the rest 
-1.0267 resent re </s> 
-0.0951 rest of the 
-1.0267 result </s> <s> 
-0.0951 result following the 
-0.0951 result in an 
-0.0951 result there are 
-0.0951 results </s> <s> 
-0.0951 results in defunct 
-0.0951 right </s> <s> 
-0.0951 round up zero 
-0.0951 running on scylla 
-0.0951 s i n 
-0.0951 s is why 
-0.0951 s isnt slow 
-0.0951 s modem some 
-0.0951 s s i 
-0.0951 s y n 
-1.0267 safeguard in the 
-1.0267 same as well 
-0.0951 same or very 
-0.0951 same results </s> 
-1.0267 sample are also 
-1.0267 say </s> <s> 
-0.0951 say i only 
-1.0267 say too much 
-0.0951 say we would 
-0.0951 say with any 
-1.0267 scary </s> <s> 
-0.0951 scylla </s> <s> 
-0.0951 scylla apparently transferring 
-0.0951 scylla has seventy 
-1.0267 second is why 
-0.0951 see _a </s> 
-0.0951 seems that yes 
-1.4246 seems to make 
-0.6322 seems to me 
-0.0951 senone with sixteen 
-0.0951 senones c most 
-1.0267 sense if there 
-1.0267 sense in some 
-0.0951 set in the 
-0.0951 seven * thirty 
-0.0951 seven / twenty 
-0.0951 seven component were 
-0.0951 seven gaussians to 
-1.0267 seven of them 
-0.0951 seven zero variance 
-0.9404 seventy seven * 
-0.9404 seventy seven / 
-0.9404 seventy seven component 
-0.9404 seventy seven gaussians 
-1.5707 seventy seven of 
-0.9404 seventy seven zero 
-1.0267 seventy six g 
-0.0951 should be a 
-1.0267 should floor them 
-1.0267 should record for 
-1.0267 should remove those 
-0.0951 should result in 
-0.0951 shows that their 
-1.0267 similar treatment can 
-0.0951 since we are 
-0.0951 single observation for 
-1.0267 situation five thousand 
-0.0951 situation where there 
-0.4105 six g b 
-1.0267 six nineteen p 
-0.0951 sixteen = fifteen 
-0.0951 sixteen gaussian effectively 
-0.0951 slow </s> <s> 
-0.0951 slow after all 
-0.0951 small change and 
-0.0951 smaller than the 
-0.0951 so * * 
-0.0951 so its treatment 
-0.0951 so slow </s> 
-1.2028 so this incidence 
-0.5725 so this is 
-0.0951 so we will 
-1.0267 some case removal 
-1.0267 some cases we 
-1.0267 some reasons to 
-0.0951 some time on 
-0.0951 some years ago 
-0.0951 something </s> <s> 
-0.0951 something normal in 
-1.0267 something scary </s> 
-0.0951 something specific to 
-1.3276 something we need 
-1.3276 something we should 
-0.0951 specific to the 
-1.0267 speculate further whether 
-0.0951 spent some time 
-1.0267 sphinxtrain </s> <s> 
-0.0951 sphinxtrain along the 
-0.0951 still assume all 
-0.0951 strange thing here 
-0.0951 subtly different </s> 
-1.0267 such a big 
-0.0951 such and such 
-0.0951 such models warnings 
-0.0951 system is not 
-0.0951 system that means 
-0.0951 t be that 
-0.0951 t observed such 
-0.0951 talk with ravi 
-0.0951 task </s> <s> 
-0.0791 ten per cent 
-0.0951 test set in 
-1.0267 testing </s> <s> 
-0.0951 than the variance 
-0.0951 that 's why 
-0.0951 that a given 
-0.0951 that confirms this 
-0.0951 that decode and 
-0.0951 that equal the 
-0.0951 that having five 
-0.0951 that in effect 
-0.0951 that is each 
-0.0951 that it is 
-1.0267 that many zero 
-0.0951 that means fifty 
-0.0951 that s is 
-0.0951 that their ways 
-1.0267 that there must 
-1.0267 that they are 
-1.0267 that we will 
-0.0951 that yes it 
-1.6288 the calo big 
-0.2040 the calo cheating 
-0.9984 the calo task 
-0.0951 the case of 
-0.3963 the cause is 
-0.3963 the cause of 
-1.3276 the cheating experiment 
-1.3276 the cheating experiments 
-1.0267 the code of 
-0.3963 the complication at 
-0.3963 the complication here 
-0.0951 the cont _ 
-0.0951 the current no 
-1.0267 the fact i 
-1.0267 the first place 
-0.0951 the floor value 
-0.0951 the flooring process 
-0.0969 the g m 
-0.3963 the gaussian component 
-0.3963 the gaussian components 
-1.3276 the implementation in 
-1.3276 the implementation of 
-1.0267 the latter arrangement 
-0.0951 the lines of 
-0.7942 the mean </s> 
-0.7942 the mean and 
-1.4246 the mean are 
-0.7942 the mean vector 
-0.0951 the non zero 
-0.0951 the normal logic 
-0.0951 the one to 
-1.0267 the other mail 
-0.0951 the plan to 
-0.0951 the problem and 
-0.9984 the reason cont 
-0.0580 the reason why 
-0.0951 the rest of 
-1.3276 the same as 
-0.6973 the same or 
-0.6973 the same results 
-0.0951 the strange thing 
-0.0951 the time the 
-0.0951 the training data 
-1.0267 the treatment of 
-0.0951 the two perform 
-0.0951 the use of 
-0.7942 the variance by 
-0.7942 the variance floor 
-0.7942 the variance flooring 
-1.4246 the variance vector 
-0.0951 the vector will 
-0.0951 the wer he 
-0.3963 the whole gaussian 
-0.3963 the whole seventy 
-0.0951 the your directory 
-0.0951 their ways of 
-1.0267 them </s> <s> 
-1.0267 them even though 
-1.0267 them have this 
-0.0951 then its variance 
-0.0951 then two hundred 
-0.0951 there 's an 
-0.9404 there are five 
-0.9404 there are only 
-1.5707 there are plenty 
-0.9404 there are then 
-0.9404 there are too 
-0.9404 there are two 
-0.6973 there is a 
-0.5353 there is no 
-1.0267 there must be 
-0.0951 there should be 
-0.0951 there won t 
-0.0951 there wont be 
-1.0267 they are inaccurate 
-0.0951 they have zero 
-0.0951 thing here is 
-0.0951 things we need 
-1.0267 thirty first two 
-0.0951 thirty nine components 
-1.0267 this in more 
-0.5725 this incidence </s> 
-1.2028 this incidence might 
-0.6973 this is a 
-1.3276 this is also 
-0.6973 this is indeed 
-1.0267 this just happens 
-0.0951 this point i 
-1.0267 this situation five 
-0.0951 this way </s> 
-1.3276 those gaussians which 
-1.3276 those gaussians with 
-0.0951 those healthy gaussian 
-0.0951 though the variance 
-0.0951 though there is 
-1.0267 though we know 
-1.5038 thousand five at 
-0.1761 thousand five hundred 
-0.0951 thousand four hundred 
-0.0668 thousand one hundred 
-0.0951 thousand senone with 
-0.0951 three point six 
-0.3963 through the flooring 
-0.3963 through the variance 
-0.0951 time on investigating 
-0.0951 time the two 
-0.0951 to all observations 
-0.0951 to ask why 
-1.4246 to be the 
-0.7942 to be valid 
-1.4246 to be zero 
-1.0267 to bigbird </s> 
-1.0267 to change the 
-0.0951 to decide which 
-0.0951 to defunct gaussian 
-0.0951 to do a 
-1.0267 to figure out 
-0.0951 to get one 
-0.0951 to go </s> 
-1.0267 to look at 
-1.0267 to make more 
-0.5725 to me that 
-1.2028 to me the 
-0.4105 to nine thousand 
-0.0951 to perform in 
-0.0951 to round up 
-1.0267 to safeguard in 
-0.6973 to the cheating 
-0.6973 to the floor 
-0.6973 to the mean 
-0.6973 to the same 
-0.0951 to those healthy 
-0.0951 to transfer the 
-0.0951 to two per 
-0.0951 to used the 
-0.0951 tomorrow to decide 
-0.0951 too many parameters 
-1.0267 too much what 
-0.0951 trained and results 
-1.3276 trained by much 
-1.3276 trained by only 
-1.0267 training </s> <s> 
-0.0951 training data </s> 
-1.0267 training there are 
-0.0951 transfer the whole 
-0.0951 transfer to bigbird 
-0.0951 transferring data to 
-1.0267 treatment can help 
-1.0267 treatment of gauden 
-0.0951 treatment to defunct 
-0.0951 twenty four thousand 
-0.0951 twenty one forty 
-0.0951 twenty two thousand 
-0.0951 two different g 
-0.0951 two five eight 
-0.0951 two hundred twenty 
-0.4105 two per cent 
-0.0951 two perform exactly 
-0.0951 two point four 
-0.0951 two things we 
-0.5353 two thousand five 
-0.6973 two thousand senone 
-0.0951 two two five 
-0.3963 u c and 
-0.3963 u c if 
-1.0267 u to be 
-0.0951 u was changed 
-0.0951 u which remove 
-0.0951 under trained and 
-0.0951 understand it in 
-0.0951 up zero variances 
-0.0951 upgrade scylla </s> 
-1.0267 use </s> <s> 
-0.0951 use less number 
-0.0951 use of more 
-0.0951 used decode the 
-0.0951 used the latter 
-0.0951 using decode _ 
-0.3963 using two different 
-0.3963 using two thousand 
-1.0267 valid </s> <s> 
-0.0951 valid in addition 
-0.0951 value </s> <s> 
-0.0951 value is smaller 
-0.0951 variance by something 
-0.0951 variance floor </s> 
-0.3963 variance flooring are 
-0.3963 variance flooring procedure 
-0.0951 variance it seems 
-1.0267 variance or we 
-0.0951 variance parameters cont 
-0.0951 variance should result 
-1.0267 variance to be 
-1.2028 variance vector is 
-0.5725 variance vector or 
-1.3276 variance vectors </s> 
-0.6973 variance vectors in 
-0.6973 variance vectors will 
-0.0951 variance will be 
-0.0951 variances to the 
-1.0267 vector as variance 
-0.0951 vector could be 
-0.3963 vector is a 
-0.3963 vector is zero 
-0.0951 vector or not 
-0.0951 vector the whole 
-0.0951 vector will be 
-1.0267 vectors </s> <s> 
-0.0951 vectors in a 
-0.0951 vectors whether they 
-0.0951 vectors will go 
-0.0951 very close to 
-0.0951 very differently in 
-0.0951 warning printed by 
-0.0951 warnings </s> <s> 
-0.0951 was able to 
-0.0951 was abnormal </s> 
-0.0951 was changed to 
-1.0267 was trained by 
-0.0951 way </s> <s> 
-0.0951 way to go 
-0.0951 ways of doing 
-0.0951 we are dealing 
-0.3963 we can understand 
-0.3963 we can upgrade 
-0.0951 we cant actually 
-1.0267 we have none 
-0.0951 we haven t 
-0.0951 we havent observed 
-1.0267 we know that 
-0.4105 we need to 
-1.0267 we probably cant 
-1.5038 we should floor 
-1.5038 we should record 
-1.5038 we should remove 
-1.5707 we will believe 
-1.5707 we will have 
-1.5707 we will need 
-0.9404 we will see 
-0.0951 we would use 
-0.0951 welcomed code is 
-1.0267 well </s> <s> 
-0.0951 well maybe one 
-0.0951 wer </s> <s> 
-0.0951 wer he got 
-0.0951 wer instead of 
-1.0267 were floored </s> 
-0.0951 were mathematically correct 
-0.0951 were removed before 
-0.0951 were using two 
-0.0951 what happens is 
-0.0951 what the cause 
-1.0267 what will happen 
-1.0267 what you say 
-0.0951 where there are 
-0.0951 whereas gauden will 
-0.0951 whereas using decode 
-1.0267 whether similar treatment 
-0.0951 whether they have 
-1.0267 whether we should 
-1.0267 which are trained 
-0.0951 which remove the 
-0.0951 which way to 
-1.0267 while flooring everything 
-0.0951 while the your 
-0.0951 whole gaussian will 
-0.0951 whole seventy six 
-0.0951 why </s> <s> 
-1.0267 why a gaussian 
-0.0791 why decode and 
-1.2028 why i could 
-0.5725 why i have 
-0.0951 why in this 
-0.0951 why it 's 
-0.3963 why the g 
-0.3963 why the latter 
-0.0951 will already make 
-0.0951 will assume the 
-0.5725 will be floored 
-0.5725 will be removed 
-0.5725 will be zero 
-1.0267 will believe those 
-1.0267 will conclude that 
-1.0267 will effectively mean 
-0.3963 will give a 
-0.3963 will give him 
-1.0267 will go through 
-1.0267 will happen in 
-1.0267 will have fewer 
-1.0267 will mean we 
-1.0267 will need to 
-1.0267 will perhaps change 
-0.0951 will say i 
-0.0951 will see _a 
-0.0951 will still assume 
-0.0951 will talk with 
-0.0951 with any certainty 
-0.0951 with floating point 
-0.0951 with ravi tomorrow 
-0.0951 with sixteen gaussian 
-1.0267 with what you 
-1.0267 with zero vector 
-1.0267 without removal will 
-0.0951 won t be 
-0.0951 wont be that 
-0.0951 would use less 
-1.0267 wrote </s> <s> 
-0.0951 y n c 
-0.0951 years ago </s> 
-0.0951 yes it is 
-1.0267 yet in calobig 
-0.0951 yet so we 
-1.0267 you have agreed 
-0.0951 you might know 
-1.0267 you say </s> 
-1.0267 your directory on 
-0.4105 zero </s> <s> 
-1.0267 zero but the 
-0.0951 zero in the 
-0.0951 zero k b 
-0.3963 zero likelihood for 
-0.3963 zero likelihood to 
-0.0951 zero point one 
-0.0951 zero that in 
-0.0951 zero the mean 
-0.9404 zero variance it 
-0.9404 zero variance should 
-0.9404 zero variance vector 
-0.2429 zero variance vectors 
-0.0951 zero variances to 
-1.2028 zero vector as 
-0.5725 zero vector the 
-0.0951 ~ eleven per 

\end\
